{"Name":"RbmSpin","Nhidden":8,"Nvisible":8,"UseHiddenBias":true,"UseVisibleBias":true,"W":[[[0.013449034663726716,-0.0029937530504415737],[-0.009566525389068655,-0.002722430759851943],[0.008060770976198527,-0.012013025515049245],[0.010383482870314239,0.006120621642060392],[0.003410319248973115,0.004775014854278591],[0.009856809261694958,0.0004215758120260146],[-0.00866081519256299,0.0035550675337686632],[0.00881427262273157,-0.01835235785169234]],[[0.018093557926696483,0.004849755885665939],[0.0005191122560488053,0.006564117983717891],[-0.0032317338589162277,0.007257135631930159],[0.0015422172467935377,0.01662515791996684],[-0.0020515877648623598,-0.007858903099471225],[0.008242301891806952,-0.006141222508916918],[-0.011997978406463588,-0.005111536800098031],[-0.0005674884063618059,-0.009537219414364459]],[[0.0016138303777685295,-0.001546015564185926],[0.006129431653137826,-0.004700774799227799],[-0.0031011167590107407,0.0029346576700426713],[0.005956420733763842,0.002638093701738165],[0.01718174579385188,-0.013310237292405781],[-0.014807365128648227,-3.916503100757527e-05],[0.0019142677153731415,-0.0012108267197189217],[0.00347956047617013,-0.0036265240080615357]],[[-3.610618843004042e-06,-0.0009538451853580373],[0.010097766188205157,0.0041243808374645296],[0.004664072712883466,0.007239675715098748],[0.00020823660636106885,-0.009579636210820376],[-0.0031065926468712697,0.0003066106418028527],[-0.005686496445268033,-0.00864132489585651],[0.026891216967297057,-0.0037994793205867817],[-0.017968589894149053,0.010997918595805534]],[[-0.0015704788013173729,0.005762643945269465],[0.014784947229417873,-0.00246745381238391],[-0.008079590026005954,0.004160777614194906],[0.01084446224340279,0.0017845322758511296],[0.0014863993509873674,-0.008085304889688406],[0.004171588574502981,-0.01893980316419192],[0.026087462127701216,0.021333360552137887],[-0.004440373947366681,-0.006885028066798043]],[[-0.014591476723308483,0.018646482018222037],[-0.006551466730465954,-0.0008794230472753088],[0.01555102651375599,0.014630076400177857],[0.012359813178703685,-0.001875851531378285],[0.02306457830848227,-0.02126866624575688],[-0.013434403220817933,0.008206943281937489],[-0.008542962462440675,0.0075219505010470705],[-0.016756738789683857,-0.021046819635861275]],[[-0.0012539261536140705,-0.006182897054282314],[-0.0015831004858716526,-0.008022350937901905],[-0.01330280916916902,-0.010059225648153062],[-0.013075130007696034,0.013480817526767086],[0.0029379935615725717,-0.0033539229472341297],[-0.018297035423579022,-0.009450100637945274],[0.004059335629586455,0.008775132594922542],[0.002212594606468775,-0.007365089820019616]],[[-0.0037471097523986098,0.013857972425183916],[0.0007708890026808506,0.03641336007915175],[0.010107330142008649,-0.0024444748260108225],[-0.006604408243747199,-0.003833403060172096],[0.003329364609516453,0.009653390529846272],[-0.00841469958454966,0.008000580036371746],[-0.015552940778614582,0.01931206563713008],[-0.007871000147311761,-0.02346285218272619]]],"a":[[-0.008706594902189405,0.0062664164962282385],[-0.0009718533176499716,0.0050228080844364744],[0.013265498512828617,0.012287211711459044],[-0.0009686068361511132,-0.03686609815766105],[-0.0008093431070316708,-0.012293973521885672],[-0.016867513138267724,0.003828041673452962],[0.0008326812633344382,-0.005366830121856838],[-0.0032701526137299737,0.011986847288082303]],"b":[[-0.005061179488169877,0.021675369024549678],[0.009257749997529359,0.010887414085955558],[0.026759695745341823,0.017739797463306187],[-0.015755609813304497,-0.0017907493096906723],[0.008984257950612994,0.010217093664100873],[0.00756729258790797,0.017383308611110877],[0.0007221262780939194,0.004988152865290706],[0.0034711571270415755,-0.00860980456073884]]}
